{
  "input_nodes": 5,
  "hidden_nodes": 8,
  "output_nodes": 2,
  "weights_ih": {
    "rows": 8,
    "cols": 5,
    "data": [
      [
        -0.7778152165800013,
        -0.5157338952095714,
        0.6912368600756815,
        0.6810232490941694,
        0.047570605716298314
      ],
      [
        0.4034165449503645,
        -0.44221931338786824,
        -0.6188643478330804,
        -1.1163508187556415,
        -0.6627272480705396
      ],
      [
        -0.7194428395477015,
        0.44921683251607314,
        -1.1173540220448408,
        0.32200293404852337,
        -0.6545788958957208
      ],
      [
        -0.9347647477408925,
        0.641695357772814,
        0.6847677506062007,
        -0.6552371852444152,
        -0.6135468979988771
      ],
      [
        0.46506365889193446,
        -0.07695001094394369,
        0.0739018232620701,
        -0.011449264668294521,
        -0.843934270214722
      ],
      [
        -0.834280033501454,
        -0.6864858594039489,
        -0.7049853313741075,
        -0.382813678691477,
        -0.2006648427887555
      ],
      [
        0.3842981846432687,
        0.9092913197676153,
        -0.2441096537452193,
        0.35386371942526357,
        -0.7899852958080662
      ],
      [
        1.1528539209193254,
        0.4504817214529064,
        0.8048496533541963,
        0.7397984695554202,
        0.06202891242066353
      ]
    ]
  },
  "weights_ho": {
    "rows": 2,
    "cols": 8,
    "data": [
      [
        -0.6335677818802514,
        -0.39956699632915815,
        -0.42891422309758065,
        -0.7248662797852952,
        0.827228292062183,
        -0.6021107326166759,
        -0.2523997481278862,
        -0.3206588633046086
      ],
      [
        -0.7797921336980209,
        -0.09020422772757361,
        0.5826993698538956,
        -0.21907917207782246,
        -0.1820739026863174,
        -0.5381106097610315,
        -0.3860228701348255,
        -0.6398156227729869
      ]
    ]
  },
  "bias_h": {
    "rows": 8,
    "cols": 1,
    "data": [
      [
        -0.37718069890109723
      ],
      [
        0.09389512092421914
      ],
      [
        0.15342837649317698
      ],
      [
        -0.18872664034306003
      ],
      [
        0.26471484463279343
      ],
      [
        -1.0100953334636693
      ],
      [
        -0.13830827747802502
      ],
      [
        -0.30437701459889466
      ]
    ]
  },
  "bias_o": {
    "rows": 2,
    "cols": 1,
    "data": [
      [
        -0.27153789987153054
      ],
      [
        -0.02247870261066076
      ]
    ]
  },
  "learning_rate": 0.1,
  "activation_function": {}
}
