{
  "input_nodes": 5,
  "hidden_nodes": 8,
  "output_nodes": 2,
  "weights_ih": {
    "rows": 8,
    "cols": 5,
    "data": [
      [
        -0.02434955061268551,
        0.11049301696984533,
        0.0008783242753614973,
        0.3084160868391339,
        0.4289757382930732
      ],
      [
        0.257849513949559,
        0.341460319299628,
        -0.9648794632151003,
        1.0181616077191453,
        0.224658059083867
      ],
      [
        -1.1197890628799876,
        0.7694449579806829,
        -0.08770680452512933,
        0.572627296872341,
        -0.8338171087090069
      ],
      [
        0.2813134064573397,
        -0.14982817590004693,
        0.1030589190348925,
        0.3570703553396178,
        0.4139389910651534
      ],
      [
        0.39009579147107065,
        -0.7253489586260777,
        -0.3070689193220503,
        -0.3652822957676328,
        0.40196162889034553
      ],
      [
        -0.4411779574945185,
        0.4112973920474223,
        -0.5743482651783114,
        -0.7723244324931505,
        0.06752691619670559
      ],
      [
        -0.8876720620227623,
        1.0262920109823814,
        0.437092842497782,
        1.00188373259675,
        -0.9042407991660028
      ],
      [
        -0.5033197833134682,
        0.6463042213997765,
        -0.7269130879512559,
        0.565154240500934,
        0.9242470419535933
      ]
    ]
  },
  "weights_ho": {
    "rows": 2,
    "cols": 8,
    "data": [
      [
        0.7190740259627765,
        -0.7571960446078221,
        0.8378289199753672,
        0.9202526099664574,
        -0.6609034023615938,
        0.6061884061230055,
        -0.8474577163442754,
        -0.6368531932856072
      ],
      [
        0.8208984934178596,
        -0.9660681993618057,
        0.8188366921707627,
        -0.3631559195238432,
        -0.634498880750849,
        -0.04236698895661195,
        0.5915295141653085,
        0.7123049332697953
      ]
    ]
  },
  "bias_h": {
    "rows": 8,
    "cols": 1,
    "data": [
      [
        0.6205090338834651
      ],
      [
        -0.5254272842159393
      ],
      [
        -0.28004076118801735
      ],
      [
        0.050403862145664086
      ],
      [
        -0.6436190119729024
      ],
      [
        -0.6273574000377824
      ],
      [
        -0.2167724962190451
      ],
      [
        -0.24939159912026074
      ]
    ]
  },
  "bias_o": {
    "rows": 2,
    "cols": 1,
    "data": [
      [
        0.811014543329675
      ],
      [
        0.5077590819374207
      ]
    ]
  },
  "learning_rate": 0.1,
  "activation_function": {}
}
